34 128
34 0.10994393 -0.04227689 0.23987392 -0.030310268 0.006884334 -0.17465593 0.04154474 0.07360108 0.019200878 0.031586386 0.22855389 -0.114663675 -0.053509638 -0.06385113 0.04250854 -0.11276925 0.0212101 0.051513538 -0.14730503 0.06887304 0.16147746 0.11861904 0.090592526 0.065598406 -0.23254044 0.18016784 -0.13262326 0.10439078 0.05940174 -0.077170305 -0.33002916 0.07064331 -0.060415845 -0.0048058718 -0.057785925 0.024893131 0.24952883 0.068364754 0.23806275 -0.031167053 -0.07903861 0.18522103 -0.116421655 -0.07826505 0.11620985 -0.0001426224 0.033420596 -0.1176 -0.040288325 0.12302697 0.07255797 0.06303356 0.20856541 0.08245172 0.11186735 0.08582182 0.18291603 0.021807367 -0.1167235 0.034119304 0.08054157 -0.14937462 0.0764512 0.10200159 0.14796974 -0.09678978 0.09147635 0.05067787 -0.008914381 -0.10232368 0.15503879 0.04900899 -0.15078239 -0.06538608 0.021224575 -0.104078226 0.045653675 -0.022937922 0.00034290933 0.23378618 0.028434396 -0.1774689 0.09580483 0.2067874 -0.03798567 0.04843934 0.2360222 -0.094656244 0.17019357 0.18940187 -0.08504868 -0.08196285 -0.06608455 0.0073892204 0.16620839 0.020943422 -0.32983875 -0.3535785 0.03495582 -0.09738827 -0.26425746 -0.017518783 0.07195317 0.10050164 0.044930052 -0.049254905 0.036680378 -0.17221516 0.0083890045 -0.056230687 0.022859242 -0.018249124 0.03820513 0.093254045 -0.09196182 0.0046007615 -0.010406357 0.18969548 0.15056823 0.16657084 -0.025571443 -0.123939976 0.049632438 0.081483155 -0.002073345 -0.18179859 -0.098810054 0.042202353
1 0.09739005 -0.03124099 0.21756288 -0.03852785 0.017224042 -0.1590017 0.033927187 0.062667765 0.030022727 0.042349953 0.20628464 -0.09789204 -0.033837557 -0.06766879 0.03368196 -0.09908326 0.014615586 0.05476418 -0.12029085 0.07002454 0.143535 0.10770142 0.0866672 0.050111424 -0.21694654 0.16934673 -0.11742198 0.09884601 0.0667859 -0.05949582 -0.2959275 0.06866294 -0.07207714 0.012181186 -0.057854865 0.022374203 0.22066922 0.06922568 0.2220538 -0.028551208 -0.05763726 0.16939266 -0.09835449 -0.07655149 0.10213899 0.008219235 0.037099607 -0.12084483 -0.048004534 0.09608752 0.07925901 0.0480764 0.18389194 0.07760621 0.09890438 0.07361577 0.16331328 0.023300325 -0.104718566 0.011832282 0.07663476 -0.13839407 0.07727184 0.09238866 0.14245325 -0.097578585 0.080359325 0.042733777 0.00031258797 -0.09833446 0.12659743 0.042137004 -0.13827908 -0.047593117 0.006899259 -0.1006502 0.042318143 -0.015364806 -0.006526445 0.22286673 0.020119831 -0.15534696 0.07416506 0.17663606 -0.01817212 0.04124903 0.21806239 -0.08975552 0.15948285 0.17435023 -0.08043741 -0.08233564 -0.067965746 0.0019465011 0.14213738 0.0055197636 -0.28806487 -0.32419616 0.037729774 -0.08913744 -0.23599356 -0.018377611 0.06771418 0.07910348 0.026686462 -0.04438658 0.019041616 -0.15976664 0.011608916 -0.04000354 0.018569255 -0.013422082 0.036308073 0.08065564 -0.089081615 0.009130415 -0.01063795 0.17133835 0.14252244 0.14399184 -0.03317493 -0.10861851 0.037225485 0.081731975 -0.011465668 -0.17667463 -0.09485292 0.032049306
2 0.07863087 -0.033830103 0.16698854 -0.030491125 0.016131774 -0.12963903 0.032404263 0.050099794 0.013694213 0.037443 0.1708735 -0.081255265 -0.03812052 -0.046430655 0.036998663 -0.0767982 0.016176954 0.040740322 -0.10538181 0.0641379 0.12428468 0.09113325 0.062341798 0.047198456 -0.17653793 0.1297888 -0.10328453 0.07511507 0.048461083 -0.05725074 -0.24599639 0.044516485 -0.04583923 0.006146916 -0.0467594 0.025587047 0.18695706 0.049627446 0.18441078 -0.016031042 -0.04739462 0.13498694 -0.07217488 -0.062083535 0.07428711 0.01017988 0.029938202 -0.095761076 -0.029946644 0.07749665 0.06423785 0.04809369 0.16098991 0.055099066 0.08558904 0.06833143 0.13636571 0.015147989 -0.07957767 0.016239997 0.0676048 -0.11607739 0.05542852 0.08259774 0.115763746 -0.076274976 0.07540842 0.041467186 -0.010765445 -0.07661402 0.11482944 0.034248304 -0.11219517 -0.040888045 0.010921375 -0.08436197 0.024365049 -0.019091956 0.0018049689 0.18769474 0.02918348 -0.1361097 0.057395395 0.15677308 -0.019517018 0.03812861 0.17849372 -0.07098519 0.13322854 0.13852292 -0.059029292 -0.06455523 -0.054385737 0.003656919 0.12316402 0.009655112 -0.24927257 -0.2691122 0.020030528 -0.07615841 -0.18881953 -0.00982914 0.057398237 0.067148134 0.026383625 -0.03030008 0.029695235 -0.13103308 0.012667617 -0.040948533 0.015158661 -0.003728962 0.030589096 0.05763314 -0.06733923 0.000108374166 -0.013008317 0.14546579 0.11297613 0.116429456 -0.028524064 -0.08271672 0.0262751 0.06995675 -0.009190661 -0.13537389 -0.068328716 0.031693272
4 0.08025326 -0.033477403 0.18216263 -0.024074426 0.011374938 -0.13502832 0.0196674 0.047724605 0.019167418 0.027571235 0.17449577 -0.08667728 -0.029518707 -0.057696763 0.031090437 -0.08562298 0.0066362084 0.040220205 -0.10988414 0.057244446 0.121509686 0.09374447 0.06707246 0.04954433 -0.1828442 0.14437135 -0.103567325 0.0796037 0.039657734 -0.051840775 -0.24814062 0.046461407 -0.054465566 0.01032029 -0.03833643 0.016202927 0.18230902 0.046230346 0.1862113 -0.012731496 -0.055302408 0.13650204 -0.08024266 -0.052947905 0.07549464 0.0029846113 0.03742924 -0.09273793 -0.034295812 0.07468983 0.06888386 0.039535943 0.15549232 0.064678535 0.077587314 0.06705796 0.13757621 0.015296188 -0.09440757 0.02614867 0.06575656 -0.11905564 0.0659218 0.07851029 0.11864044 -0.080596685 0.07273843 0.037766416 0.0044688284 -0.081633374 0.11018585 0.025041478 -0.12140376 -0.048611373 0.009278462 -0.08717843 0.034006454 -0.02237466 0.00064585113 0.18248785 0.019875638 -0.13342613 0.07367437 0.1585395 -0.027221689 0.042304322 0.17039742 -0.06453906 0.12562075 0.14114164 -0.06041343 -0.05749927 -0.054487094 0.011826549 0.12652946 0.0015070075 -0.2505038 -0.26944745 0.027224546 -0.079466544 -0.19858742 -0.024177346 0.059725925 0.07351425 0.019202292 -0.03817188 0.026766047 -0.13531436 0.012849435 -0.041100968 0.017493386 -0.016900796 0.03647278 0.06929742 -0.07232563 0.004914747 -0.018894656 0.1399351 0.11485082 0.11478345 -0.032724105 -0.0911848 0.034842394 0.07189209 -0.010535551 -0.14721113 -0.07741282 0.028431876
33 0.07870879 -0.039399646 0.17701304 -0.035637133 0.006687419 -0.13291171 0.02579929 0.049641993 0.0113440715 0.025284234 0.1757802 -0.080000795 -0.043322183 -0.05551808 0.037751555 -0.09176201 0.015815252 0.042828113 -0.10224239 0.05157256 0.11467278 0.07968327 0.06463342 0.0559573 -0.17580055 0.14349224 -0.09624572 0.07269625 0.05862028 -0.061799817 -0.25191122 0.053512048 -0.05284632 -0.0016608107 -0.04292771 0.026353683 0.18396476 0.055373445 0.18273847 -0.027846552 -0.048028518 0.14442836 -0.0903713 -0.054995634 0.09700037 -0.006492965 0.02398427 -0.10140677 -0.027291333 0.0879483 0.06702922 0.038440157 0.16376887 0.06406734 0.08064323 0.06949946 0.13106023 0.0136377895 -0.0844091 0.023580097 0.067734614 -0.10898272 0.05940834 0.08807261 0.106095 -0.072248906 0.07098953 0.038096618 0.0005524114 -0.08383924 0.11839621 0.025221415 -0.114000864 -0.05091875 0.009448285 -0.071359046 0.029090451 -0.013852781 0.00879949 0.18973064 0.014842065 -0.13937923 0.07698852 0.15619431 -0.026272038 0.02811665 0.17779449 -0.07410382 0.1376926 0.1363409 -0.06675181 -0.062371444 -0.053260125 0.0056708185 0.1243613 0.012651521 -0.2469628 -0.26495332 0.031012256 -0.076589026 -0.19575939 -0.007998473 0.04683307 0.071789406 0.03780946 -0.028543662 0.028166777 -0.14211491 0.008749543 -0.040354118 0.024899645 -0.0071875514 0.03347919 0.06737992 -0.07315218 -0.004780864 -0.012592882 0.13804425 0.12225711 0.13427518 -0.020530546 -0.08911492 0.027878322 0.06881072 -0.01107477 -0.1457982 -0.07653603 0.0226556
28 0.08447343 -0.034981336 0.1736383 -0.033621795 0.013989433 -0.11171369 0.018995976 0.03896472 0.013714304 0.021535568 0.15679803 -0.08641787 -0.04222042 -0.047027223 0.025682183 -0.085404016 0.01190021 0.02823773 -0.10384833 0.047747917 0.10935508 0.07610156 0.066524595 0.046809077 -0.16963057 0.1353401 -0.09679413 0.06675294 0.0410917 -0.055813413 -0.2294981 0.055559963 -0.050156016 0.0060413396 -0.034303974 0.012718283 0.17458682 0.05718279 0.16497926 -0.014367477 -0.045413427 0.12250112 -0.08348205 -0.05070099 0.082427844 -0.0059133996 0.03651798 -0.092491396 -0.03760774 0.081848934 0.05283989 0.04219585 0.14613125 0.057886686 0.07327493 0.06339695 0.13408644 0.014674478 -0.08100655 0.021948475 0.06375409 -0.10848345 0.064283505 0.082305014 0.1012823 -0.06885528 0.0692217 0.029116118 -0.0092783375 -0.077912845 0.105958655 0.02916811 -0.100765884 -0.042933285 0.011722646 -0.07051048 0.032428037 -0.015276217 -0.0038788472 0.16156235 0.019384852 -0.12118179 0.06529632 0.13389874 -0.030339224 0.03777952 0.15957403 -0.059864424 0.11621382 0.13701242 -0.06682601 -0.056127828 -0.049252022 -0.0015423516 0.10793826 0.011116278 -0.23117013 -0.2457624 0.019303342 -0.070111714 -0.1740176 -0.016326737 0.045953453 0.06997271 0.035312995 -0.03599677 0.0183643 -0.12771456 0.014383622 -0.034758024 0.008367609 -0.008934546 0.03692962 0.054721143 -0.07156602 0.006346037 -0.018300146 0.13153617 0.10908974 0.12347245 -0.012781861 -0.087871715 0.026391882 0.07001023 -0.004079823 -0.12482182 -0.0755469 0.035659675
3 0.06754601 -0.030640714 0.14843595 -0.02434068 0.014650352 -0.10772958 0.018417805 0.04282022 0.022432165 0.019778598 0.14038272 -0.078083575 -0.034258142 -0.04384661 0.021616403 -0.066105686 0.012438598 0.030330792 -0.082948826 0.057045825 0.104500845 0.07128418 0.05600017 0.0370317 -0.15582305 0.12024425 -0.08331063 0.062357605 0.038918465 -0.04885927 -0.19995435 0.03980162 -0.051183093 0.011046172 -0.03245606 0.024495533 0.15661539 0.047823183 0.15681258 -0.020238949 -0.049261242 0.116388276 -0.06431339 -0.0513656 0.07790908 -0.0012912051 0.03392913 -0.078694746 -0.034053303 0.06774526 0.04540293 0.03460513 0.13294989 0.058691163 0.07307478 0.0501516 0.11597521 0.01916149 -0.07356694 0.007383238 0.051642966 -0.1003556 0.057136394 0.061695136 0.099570416 -0.054430168 0.05811413 0.03180364 -0.0046789064 -0.059676964 0.096318 0.019100344 -0.09627163 -0.031818394 0.00922149 -0.06760281 0.024439134 -0.01561653 0.000100324425 0.15451953 0.015106971 -0.11396698 0.055218905 0.12496132 -0.019771123 0.025509581 0.14844675 -0.0591282 0.10887415 0.115545616 -0.048172634 -0.05783015 -0.048585642 0.0005182995 0.10673696 0.007908169 -0.21021883 -0.2192455 0.018196544 -0.059788674 -0.16776441 -0.011856031 0.036157068 0.06038226 0.028041413 -0.022418257 0.01421063 -0.115167946 0.00185465 -0.03723296 0.005765899 -0.009353488 0.026094493 0.04832057 -0.05476745 0.0018365921 -0.00532498 0.11587746 0.09706832 0.09725228 -0.020823397 -0.07156009 0.021808488 0.0577927 -0.0022666948 -0.11821458 -0.05266141 0.031736784
24 0.06654189 -0.019571342 0.14250621 -0.027692614 0.005787988 -0.103232056 0.0143977 0.04497275 0.012945362 0.014403151 0.12675574 -0.061989594 -0.031601552 -0.04360308 0.027211973 -0.066770434 0.009921983 0.0297366 -0.084049754 0.051920384 0.093700565 0.057826534 0.05518231 0.03229087 -0.13788971 0.11105369 -0.08075759 0.05583713 0.04477422 -0.046432525 -0.19436896 0.04917892 -0.041764565 -0.0020339312 -0.02536166 0.01904712 0.14467052 0.050517794 0.13179807 -0.011918875 -0.039943922 0.10853119 -0.0629947 -0.04044923 0.072094314 0.0039185523 0.021620313 -0.07694631 -0.027229195 0.06928198 0.04314996 0.039618846 0.12656906 0.05405868 0.06314167 0.05812876 0.104689054 0.02263069 -0.062897764 0.007928913 0.044291504 -0.08916721 0.051017042 0.061937194 0.084521025 -0.050774403 0.06201502 0.025846269 -0.008422102 -0.06350597 0.08388265 0.016606467 -0.08511922 -0.036846764 0.011867974 -0.055944998 0.020187706 -0.020132579 0.0021232849 0.13447347 0.018461851 -0.10783537 0.058541704 0.11724802 -0.016672468 0.025055218 0.13290465 -0.047123294 0.10114619 0.10309024 -0.056726754 -0.04724628 -0.03540451 0.007412137 0.08452121 0.016062062 -0.18460749 -0.19639905 0.028019225 -0.06591451 -0.15665433 -0.007542044 0.045372978 0.05837214 0.029475955 -0.027059717 0.025912223 -0.11125457 -0.00010428765 -0.03515162 0.009622495 -0.0023892336 0.021686522 0.043199122 -0.04857008 -0.004013948 -0.0029286249 0.10267788 0.09262916 0.10158737 -0.0137965195 -0.07257633 0.026994823 0.045686506 -0.0068493676 -0.108592875 -0.049929302 0.020632958
30 0.070551 -0.025749378 0.16176187 -0.030736316 0.015639963 -0.111464545 0.02074194 0.04621007 0.023441562 0.029274441 0.15802626 -0.073370986 -0.033581074 -0.048673466 0.025488744 -0.07714876 0.011671909 0.03346972 -0.10173767 0.058369316 0.10095602 0.06960113 0.055401284 0.04280492 -0.16926117 0.12560749 -0.095889024 0.06522218 0.039178465 -0.048742957 -0.21857318 0.05032647 -0.05147626 -0.0015824529 -0.030547189 0.021043077 0.15822941 0.048514124 0.16370712 -0.017269397 -0.056331735 0.12761898 -0.08357298 -0.056786876 0.084203705 -0.004605506 0.029725755 -0.07842967 -0.03388966 0.08835082 0.05441558 0.048846856 0.14965716 0.047958825 0.06928285 0.06701166 0.1277842 0.026622549 -0.071265526 0.02497796 0.047188647 -0.09831042 0.049679674 0.0770835 0.10577421 -0.06331134 0.069789745 0.032840002 -0.006244822 -0.0662469 0.09778236 0.028647473 -0.093131386 -0.04517521 0.015152384 -0.0773774 0.035488825 -0.008018823 0.0032668475 0.16816796 0.020312514 -0.1291905 0.062366143 0.1430766 -0.027056118 0.027998837 0.1617966 -0.05912452 0.1168748 0.1232635 -0.055098742 -0.06099844 -0.050901923 -0.0011886675 0.10363865 0.0042474763 -0.22349933 -0.24321724 0.024178728 -0.07748101 -0.18413655 -0.020197012 0.038823638 0.07102835 0.031363547 -0.02963243 0.022123925 -0.12866627 0.0072580827 -0.03520859 0.01565503 -0.006705387 0.0298974 0.058465842 -0.07205598 -0.006194322 -0.018632142 0.12451514 0.10684263 0.12241681 -0.019034669 -0.08475482 0.037322816 0.06088853 -0.007829216 -0.11667402 -0.0624762 0.022459893
14 0.06711579 -0.020336026 0.12761135 -0.021547843 0.009920676 -0.09260824 0.019395329 0.03518838 0.015092024 0.022203658 0.12868991 -0.06645502 -0.031367548 -0.033950947 0.032419074 -0.055528894 0.0034320587 0.031491242 -0.08214066 0.05156561 0.091826975 0.070981555 0.051156383 0.04195765 -0.140095 0.111275874 -0.07649764 0.05418177 0.034465898 -0.03332632 -0.19094694 0.03656728 -0.03318266 0.0030623614 -0.03827976 0.010110582 0.14573349 0.04566505 0.1407915 -0.018554956 -0.047165267 0.10622316 -0.056009714 -0.047509376 0.057423256 -0.00091008696 0.019395819 -0.07350501 -0.027320297 0.0587692 0.054529104 0.025766626 0.12359206 0.05127066 0.059143405 0.0569612 0.11094613 0.010355921 -0.07035621 0.00915145 0.04035972 -0.08849269 0.042006183 0.053320117 0.086769424 -0.054714967 0.05782147 0.02478236 -0.0067478325 -0.058591116 0.08577483 0.030339405 -0.0860252 -0.02642043 0.0015435586 -0.053878102 0.021413257 -0.0064995917 -0.005789821 0.13922596 0.017376548 -0.10126877 0.046340387 0.108056374 -0.02437161 0.020531608 0.13399687 -0.052309953 0.096782684 0.11070916 -0.05042121 -0.048301123 -0.04675521 -0.003908723 0.098462194 0.0030789068 -0.18995652 -0.19521652 0.02493186 -0.06379705 -0.14579694 -0.01738544 0.041798495 0.05076132 0.017960696 -0.02423931 0.02653793 -0.09481922 -0.0009289356 -0.03336216 0.019118946 -0.005612586 0.020373788 0.05021499 -0.046918094 0.00035928356 -0.016872434 0.106613986 0.09233042 0.09807287 -0.014915036 -0.07278381 0.023947662 0.051586427 -0.0012813241 -0.11361178 -0.0616725 0.022716083
32 0.06564359 -0.022787781 0.1542439 -0.017592508 0.00581361 -0.112608 0.029403865 0.04115616 0.012090234 0.025830876 0.14839536 -0.07729885 -0.026228173 -0.051294416 0.03376779 -0.072887115 0.019639516 0.038842592 -0.08618877 0.057272643 0.09499982 0.08310255 0.049805757 0.040673777 -0.16099828 0.117001 -0.09294536 0.05974744 0.04063323 -0.04896839 -0.21828267 0.052151065 -0.05363323 -0.0015439771 -0.029576566 0.023985203 0.16569483 0.05124694 0.15691857 -0.022753328 -0.042114362 0.12206854 -0.06517051 -0.043987345 0.08197457 0.0069984715 0.017926922 -0.08870388 -0.02825339 0.079846814 0.05932735 0.042475183 0.14563009 0.04946023 0.07501741 0.05569954 0.11057859 0.025971113 -0.07448299 0.014251248 0.051355515 -0.1016353 0.057206456 0.07406582 0.0981124 -0.07112817 0.05794084 0.02929954 0.0016663425 -0.07206411 0.09854724 0.028693447 -0.10560956 -0.036462214 0.0099668875 -0.06785667 0.030724049 -0.016041672 -0.0013308054 0.16554227 0.022556372 -0.11302289 0.062995546 0.13884014 -0.014893101 0.029174244 0.16000481 -0.05674812 0.11832325 0.120072305 -0.05750036 -0.058687564 -0.052299663 0.007317776 0.112307765 0.017969623 -0.21514906 -0.22597148 0.026269797 -0.07083658 -0.1677403 -0.018262055 0.051453542 0.0668448 0.027668562 -0.025915125 0.028729262 -0.11122508 0.0065218816 -0.038226273 0.02173404 -0.0024207546 0.030029591 0.05673354 -0.068143375 -0.0029922924 -0.00361192 0.118626416 0.09697289 0.11739958 -0.0127681205 -0.07217291 0.028368268 0.052827295 0.0017290999 -0.12519313 -0.058661047 0.029274352
29 0.06674907 -0.029472642 0.13351277 -0.028186738 0.0035824827 -0.09807155 0.014752787 0.04177137 0.02050976 0.017621715 0.12214056 -0.06445755 -0.019038402 -0.032636944 0.024956882 -0.062696636 0.0043195537 0.031245766 -0.07346284 0.040025044 0.08949223 0.05838531 0.038385298 0.03292163 -0.12863228 0.09378317 -0.07496378 0.04716442 0.043091793 -0.03294919 -0.175047 0.044552963 -0.031661816 0.0015971638 -0.024548192 0.017696984 0.13346124 0.0453278 0.12373709 -0.016540382 -0.037448477 0.10112663 -0.056428034 -0.03569062 0.06614255 -0.0063970685 0.019080816 -0.07359759 -0.017046666 0.06538105 0.04366403 0.035268065 0.10820366 0.038289595 0.059156686 0.053004287 0.09993636 0.020771863 -0.06269868 0.010292104 0.043383285 -0.08303814 0.040024124 0.0516434 0.086941704 -0.054379873 0.04811963 0.018074179 0.0048238435 -0.05611122 0.08147533 0.024900753 -0.08677111 -0.029368194 0.0111607285 -0.06395622 0.026170183 -0.010036634 0.0064798994 0.13405338 0.012842819 -0.10226972 0.053550474 0.109342135 -0.0128283 0.029454775 0.12697576 -0.05395905 0.093266174 0.10553292 -0.050361183 -0.0377235 -0.0428558 0.007001767 0.08668791 0.014536123 -0.17794721 -0.191935 0.014204287 -0.0529738 -0.14184476 -0.0053183064 0.032907482 0.04389937 0.016538199 -0.018782802 0.012330648 -0.09977793 6.3414795e-05 -0.021430617 0.014877891 -0.0043968195 0.020701967 0.05155226 -0.057633292 -0.0011482957 -0.013074699 0.09809729 0.08169654 0.096915364 -0.015419147 -0.07159724 0.018541869 0.043249663 -0.0021742529 -0.09239164 -0.056328524 0.027839547
7 0.076365545 -0.03043271 0.13810052 -0.016426247 0.019325336 -0.1125732 0.01648282 0.050629254 0.019413238 0.033162814 0.13285622 -0.08146265 -0.027457405 -0.05296182 0.024757124 -0.07206149 0.021699842 0.0407172 -0.09061498 0.052906726 0.104983285 0.070773415 0.06375102 0.046975564 -0.1482958 0.110452235 -0.084685996 0.06221992 0.050398793 -0.050866127 -0.2081915 0.053561386 -0.043162357 0.010099309 -0.04639805 0.018648645 0.15746452 0.042235266 0.15716477 -0.009551548 -0.043271147 0.11153246 -0.06531595 -0.05420607 0.059613496 3.7281545e-05 0.023171622 -0.07736762 -0.034293525 0.07393031 0.047351807 0.026606873 0.14057112 0.05866369 0.06445581 0.056252386 0.108499244 0.007997088 -0.07795403 0.018952642 0.058238335 -0.08382882 0.056770343 0.06923028 0.09861814 -0.07282691 0.06088377 0.028715268 0.0014815964 -0.06573988 0.09200096 0.03563408 -0.09513099 -0.035176743 0.0048765275 -0.07642022 0.01822269 -0.0075098043 -0.009678541 0.1624896 0.010440895 -0.11289848 0.0523915 0.11501568 -0.0091189025 0.035362195 0.15016922 -0.054801878 0.10848504 0.12414262 -0.04494894 -0.06264798 -0.045582276 0.0031831223 0.10255098 0.005734532 -0.20283537 -0.23058645 0.024395034 -0.06062787 -0.15530843 -0.01593409 0.03549505 0.050561376 0.023908066 -0.03779453 0.012540279 -0.104886815 0.0145977 -0.027664093 0.006007716 -0.013227495 0.03663783 0.05919373 -0.063603505 -0.005205137 -0.009385088 0.12202334 0.10029732 0.10394257 -0.023683507 -0.08337613 0.01891167 0.05695527 0.00086378196 -0.11263907 -0.057576627 0.029882813
6 0.070865504 -0.020955944 0.14028578 -0.018497935 0.017134981 -0.10621127 0.028887536 0.05270617 0.016200902 0.02543123 0.14134282 -0.08200638 -0.022896554 -0.050623294 0.037079822 -0.07441632 0.015186046 0.02684932 -0.09724481 0.04264425 0.09267988 0.072994195 0.049888115 0.03818928 -0.1562517 0.11149043 -0.075968124 0.06992204 0.052803244 -0.040263984 -0.21329233 0.05371474 -0.054250203 0.0019591465 -0.046813414 0.02195946 0.15620625 0.053202584 0.15515631 -0.023072649 -0.03735904 0.11024113 -0.059152 -0.04686165 0.06563193 -0.002882584 0.020983156 -0.08673353 -0.021541215 0.06924079 0.058888275 0.025191616 0.13780372 0.05098338 0.07491589 0.047361124 0.120125435 0.011272431 -0.07890943 0.009149187 0.05076893 -0.09495567 0.0482919 0.05954431 0.099143475 -0.06664878 0.055855907 0.03200676 -0.010080748 -0.07151708 0.09984064 0.03715071 -0.10557726 -0.030624684 0.013380528 -0.072951294 0.03187513 -0.021652143 0.0037934217 0.16143656 0.018286534 -0.1188609 0.051726807 0.12075361 -0.015194817 0.031070845 0.15570822 -0.051115323 0.11829128 0.11505838 -0.044562105 -0.05634323 -0.03899871 0.0067994525 0.10008729 0.01302511 -0.21039777 -0.2311688 0.017124044 -0.063501395 -0.15653177 -0.012723095 0.043427143 0.06099585 0.031117054 -0.037857994 0.020535998 -0.118220605 0.011274665 -0.02189082 0.019559924 -0.0031819714 0.037066713 0.062176332 -0.05468682 0.0076134955 -0.014135636 0.12800372 0.10426003 0.10200265 -0.011627947 -0.07283461 0.032855473 0.060021564 0.004206464 -0.11706961 -0.052274104 0.02825108
9 0.054218918 -0.021793554 0.10942572 -0.010937292 0.0058806087 -0.07632742 0.018573122 0.023098845 0.018837215 0.008053271 0.09257395 -0.048534364 -0.015760016 -0.034802675 0.02252473 -0.041326776 0.0021293047 0.017810624 -0.064820476 0.03211935 0.07079696 0.05911341 0.043128457 0.028533686 -0.10388703 0.088777065 -0.05054926 0.049112443 0.033196494 -0.0379611 -0.14638333 0.026010277 -0.02561721 0.0010025868 -0.03180263 0.017677587 0.11327403 0.029916259 0.11245511 -0.012462227 -0.03437022 0.08005481 -0.047929764 -0.035321184 0.05344696 0.005155111 0.024298156 -0.06288473 -0.022554068 0.04536187 0.041652814 0.031317625 0.089752026 0.038121585 0.04154113 0.03924758 0.0873976 0.010118192 -0.05464782 0.0043130303 0.033892546 -0.067479424 0.03983104 0.05488512 0.06407152 -0.0425927 0.04839071 0.02119241 -0.001090576 -0.038155377 0.07333958 0.024380134 -0.07143366 -0.016791405 0.0114303185 -0.039193533 0.01642367 -0.0070823184 0.0053817434 0.10347315 0.017791066 -0.07653472 0.046901144 0.08582179 -0.016826736 0.024987109 0.09545754 -0.046611153 0.07116488 0.08101902 -0.039646856 -0.031596 -0.023930982 0.0020620446 0.07132329 0.008405952 -0.14464296 -0.16073222 0.02118781 -0.04880552 -0.10984467 -0.0029234972 0.03290794 0.044039764 0.019177096 -0.02131454 0.01732172 -0.07786012 0.009191665 -0.017277287 0.010889175 -0.0008245989 0.011546958 0.043239154 -0.035615016 -0.0027855895 -0.005592956 0.0765144 0.06896912 0.07543136 -0.0068894033 -0.05240998 0.020079706 0.04151287 0.00322985 -0.08740546 -0.04798821 0.015144231
20 0.05288 -0.016399857 0.11103794 -0.021778207 0.002863706 -0.08196768 0.015233963 0.026442219 0.017015168 0.027673002 0.109098814 -0.06265231 -0.01988708 -0.035097808 0.01464838 -0.048539802 0.0029937383 0.023539213 -0.07160391 0.03547315 0.080542535 0.06670762 0.04813697 0.038380552 -0.12111723 0.093137056 -0.067627326 0.0446364 0.034984905 -0.033769242 -0.17160378 0.03076883 -0.043305043 1.3923198e-05 -0.026032614 0.020903913 0.124484465 0.03804004 0.12658806 -0.014478119 -0.036796857 0.085065894 -0.05431667 -0.040720847 0.055538837 0.007479259 0.01565806 -0.06700142 -0.028713249 0.052536566 0.03925588 0.030914623 0.10879744 0.037430406 0.049518712 0.045233797 0.094877735 0.018659053 -0.060551073 0.008429925 0.03639109 -0.07570111 0.04406235 0.053297345 0.083783075 -0.052741986 0.04606589 0.018211043 -0.002758496 -0.05925329 0.0736017 0.022282679 -0.08325853 -0.021174058 -0.0004216667 -0.06295623 0.014359651 -0.0057502184 0.002655047 0.12982172 0.017162682 -0.08837771 0.041690007 0.10794645 -0.012398651 0.026087657 0.117377795 -0.046687476 0.0914669 0.09228365 -0.03904353 -0.043532323 -0.030893732 0.006062988 0.08298064 0.002488736 -0.16777088 -0.17468147 0.012942314 -0.05239724 -0.13024615 -0.009475746 0.029092979 0.054589707 0.016631829 -0.027450088 0.01796139 -0.089908265 -9.8692886e-05 -0.02800259 0.009892352 -0.0142617375 0.022132877 0.046411816 -0.05206077 0.0037890056 -0.0055877087 0.10075554 0.07919475 0.08393276 -0.014603543 -0.062012944 0.01405797 0.05233521 -0.005062975 -0.10254898 -0.054379243 0.017039072
5 0.06543932 -0.018633002 0.13705438 -0.028155388 0.011790327 -0.10025334 0.015093956 0.044150468 0.018656116 0.022656042 0.1183916 -0.07102105 -0.02543805 -0.032830022 0.030317556 -0.069779925 0.003460745 0.0374093 -0.080316186 0.0424059 0.094521 0.06180721 0.05477215 0.036512535 -0.14207102 0.103837214 -0.068800785 0.065886244 0.040579654 -0.036360987 -0.19018729 0.040278796 -0.046085555 0.007478373 -0.035608128 0.013904584 0.131715 0.048701562 0.1378078 -0.016153999 -0.04329014 0.10982191 -0.06455759 -0.041674446 0.061502945 0.008458549 0.028625775 -0.07544145 -0.024371829 0.060726326 0.040137112 0.029497847 0.12145412 0.051461216 0.06753542 0.057558514 0.09510442 0.02089804 -0.07059342 0.01172728 0.047559682 -0.07897071 0.051735003 0.062139187 0.09711298 -0.057775293 0.04696564 0.0195403 0.0034516032 -0.06543051 0.081775315 0.027971035 -0.08970622 -0.036399283 0.005983367 -0.06331784 0.02487249 -0.0085360175 -0.0064843367 0.14263657 0.022283072 -0.0995214 0.052830797 0.10832954 -0.0102470275 0.019564478 0.13705038 -0.06101232 0.09625829 0.097934864 -0.04693652 -0.054314762 -0.042276174 0.004869198 0.0938559 0.006711674 -0.19248836 -0.20798878 0.01977454 -0.061366733 -0.15315314 -0.013673323 0.04488867 0.057911284 0.012405726 -0.024268586 0.010785107 -0.10786192 0.0073966417 -0.026391165 0.0052879173 -0.013867279 0.024630528 0.05585173 -0.062157135 0.008275085 -0.008639287 0.10718315 0.09677948 0.095571056 -0.021828674 -0.065233566 0.024629293 0.058017906 -0.0036601194 -0.11031107 -0.05482571 0.01906551
15 0.06006503 -0.018381141 0.12984146 -0.012295975 0.0007215572 -0.09454741 0.025509972 0.036856793 0.0061811204 0.019194866 0.12118075 -0.062654786 -0.031341992 -0.032271937 0.032853775 -0.06569323 0.010374063 0.025180204 -0.080952995 0.039100803 0.07952458 0.06828449 0.040200427 0.037806656 -0.12700115 0.10023755 -0.069385156 0.06096769 0.036195993 -0.044059344 -0.174467 0.040493798 -0.03903158 -0.006880426 -0.034647465 0.008699808 0.1354818 0.04229023 0.13393648 -0.009477706 -0.043159597 0.099240795 -0.05137181 -0.038746696 0.06423376 0.0049250117 0.012458948 -0.059437502 -0.017639011 0.06885044 0.035314236 0.0359249 0.11846638 0.042248726 0.0516504 0.052137293 0.0895765 0.009346763 -0.058170274 0.020908127 0.05099343 -0.083242565 0.033633173 0.0656789 0.08429538 -0.056351993 0.04212489 0.021242464 -0.007051959 -0.05854898 0.08106159 0.023392528 -0.08298613 -0.036305428 0.017375931 -0.059163492 0.015062768 -0.0053662276 0.0038446547 0.13555066 0.011746952 -0.101801455 0.05012443 0.10655634 -0.025389249 0.023348266 0.12595674 -0.04303813 0.098484874 0.10059068 -0.049515583 -0.04549229 -0.040640995 0.008734544 0.08023125 0.010654576 -0.17351522 -0.19031662 0.0117744 -0.0493336 -0.14394945 -0.010563252 0.03860359 0.057231095 0.015297204 -0.020961555 0.0280573 -0.100360855 0.0030483764 -0.023660956 0.017144525 -0.005109065 0.029585449 0.047369443 -0.048264585 -0.0016246351 -0.015217896 0.1018659 0.08360797 0.08204387 -0.014158602 -0.06372117 0.023024814 0.054646328 -0.006126709 -0.102301545 -0.044322986 0.014572289
8 0.042824127 -0.020863047 0.10056273 -0.017306354 0.009958335 -0.0795372 0.010703248 0.029159395 0.011401908 0.02034842 0.108252145 -0.047688454 -0.013881754 -0.038586505 0.027670177 -0.051302563 0.014413511 0.025443358 -0.06019345 0.028259186 0.064563125 0.06141548 0.03828244 0.03134403 -0.10412988 0.08501795 -0.051976148 0.045607287 0.020889085 -0.038131934 -0.14976342 0.023684457 -0.025482913 0.0069982368 -0.032851227 0.019027866 0.1175536 0.03702921 0.11466726 -0.019983392 -0.0319918 0.075566076 -0.052745003 -0.034579147 0.0507434 0.00240259 0.02255099 -0.05629272 -0.017410697 0.055779673 0.033338852 0.033605304 0.100676075 0.045528095 0.051550217 0.037226804 0.080507934 0.01255555 -0.054143347 0.018430298 0.0379094 -0.0664014 0.041942097 0.040811554 0.07536378 -0.038992763 0.0414089 0.022936435 -0.0071877846 -0.052600145 0.07459862 0.016307194 -0.063763455 -0.023939218 0.0046721054 -0.04684024 0.01577494 -0.012287623 5.219962e-05 0.113808 0.012664438 -0.08016874 0.033525325 0.09975381 -0.021284731 0.027070222 0.10951193 -0.04844106 0.07361187 0.078631125 -0.04259652 -0.032415584 -0.02387605 0.0043499204 0.073958546 0.013519007 -0.15279615 -0.16174962 0.01877652 -0.052577674 -0.12507442 -0.018435752 0.039519355 0.04767543 0.0125768315 -0.027568994 0.014970873 -0.0775709 0.0045913504 -0.021754315 0.005979737 -0.0024544701 0.020017033 0.046702757 -0.05252438 -0.002443867 -0.014224686 0.083660476 0.06411936 0.07882037 -0.020120861 -0.05970676 0.023172088 0.035440627 -0.002396246 -0.09221817 -0.037683383 0.025561817
25 0.054743078 -0.01559798 0.117589004 -0.024014443 0.015959105 -0.08901332 0.023158684 0.03405634 0.009677331 0.014394642 0.11356284 -0.05893539 -0.01648184 -0.038135115 0.028367268 -0.05384321 0.015684752 0.02204895 -0.06144854 0.04411172 0.07639473 0.05599219 0.04594472 0.03704639 -0.10722342 0.09559041 -0.056895882 0.054655816 0.038710095 -0.034965876 -0.15638098 0.036274265 -0.03339621 0.003504721 -0.033638593 0.0052518984 0.11456029 0.0426317 0.11045447 -0.018618757 -0.030025832 0.08759581 -0.05117285 -0.03287268 0.05873421 0.0043277466 0.02101925 -0.060367096 -0.015287592 0.056806196 0.034476046 0.033505563 0.10506513 0.041889984 0.04818465 0.044867717 0.09152024 0.01955478 -0.053988624 0.004302963 0.039134793 -0.071582675 0.043499853 0.043473687 0.080131195 -0.052861754 0.048916664 0.014026674 0.004823826 -0.044689 0.073012404 0.017511623 -0.07219207 -0.026978806 0.002712009 -0.04572146 0.021843087 -0.008232867 -0.00600112 0.12140621 0.01388248 -0.08556603 0.035673566 0.09869929 -0.009996502 0.02815898 0.10619221 -0.050656747 0.07787518 0.08870979 -0.04813584 -0.046475552 -0.034035157 0.0036513554 0.06829167 0.005477132 -0.15448676 -0.16233356 0.019069027 -0.04992821 -0.1288574 -0.015823875 0.032039285 0.0513196 0.02288641 -0.02288992 0.015673775 -0.092318416 0.004132886 -0.027106138 0.014577919 -0.0076752068 0.016603991 0.034062747 -0.04754832 -0.0052980073 -0.008336059 0.084436685 0.07192168 0.07747497 -0.019936727 -0.059278578 0.021303808 0.039800983 -0.009650985 -0.09174682 -0.05403085 0.019312356
16 0.06203045 -0.024090117 0.12468451 -0.015418134 0.013946932 -0.08333235 0.027246434 0.026869664 0.0051855803 0.012525476 0.11004775 -0.0648034 -0.032313954 -0.037990704 0.025603434 -0.05990449 0.0030911523 0.03010475 -0.07225841 0.04311747 0.086804114 0.065518804 0.04366547 0.036493048 -0.1271871 0.09666747 -0.0647411 0.0598978 0.031854052 -0.03601581 -0.1728859 0.035267074 -0.028818566 -0.0025334582 -0.030887946 0.0059159813 0.11892851 0.045199063 0.1193047 -0.010593398 -0.042191204 0.092402175 -0.062916085 -0.033044808 0.06502162 0.004289523 0.02648994 -0.06546265 -0.030233022 0.06687851 0.037277143 0.03600768 0.1140046 0.04178471 0.048688218 0.04493115 0.097977266 0.0075501897 -0.058049753 0.0071807536 0.04958507 -0.07996967 0.048001084 0.051292226 0.069302574 -0.058429874 0.044440724 0.027884692 -0.003943421 -0.04697917 0.08055946 0.025250722 -0.07535933 -0.023852916 0.0069753677 -0.04757211 0.013234977 -0.009140317 0.00058532075 0.12516597 0.01996088 -0.09523239 0.04529451 0.10399326 -0.018011885 0.02097374 0.12491246 -0.052473843 0.09646633 0.09546232 -0.043042894 -0.04055755 -0.036492746 0.004812153 0.079833426 0.012089518 -0.16695051 -0.18271945 0.0108540915 -0.060410406 -0.13309784 -0.014893145 0.034843795 0.04601416 0.013482317 -0.022213096 0.023672573 -0.093571775 8.068407e-05 -0.024088599 0.01198146 -0.010290872 0.021260608 0.044471428 -0.05102119 -0.007834515 -0.0023919698 0.09876386 0.077889904 0.09177998 -0.013709996 -0.05652784 0.020942777 0.05242942 -0.0044131475 -0.10061361 -0.053329222 0.027379775
11 0.058729652 -0.020236924 0.12949708 -0.025931781 0.008484668 -0.09717357 0.012893776 0.029204791 0.018018436 0.024438443 0.12045224 -0.060078435 -0.022011602 -0.03182241 0.022107458 -0.055857856 0.017010607 0.029312057 -0.06837628 0.035591856 0.08857258 0.065482266 0.051601287 0.026159553 -0.12683356 0.09916959 -0.072765596 0.048647087 0.041836176 -0.043195583 -0.17715383 0.04470505 -0.044552766 0.011816759 -0.031762198 0.019409085 0.12592019 0.034510955 0.11957056 -0.0146699725 -0.0409965 0.09370672 -0.04860092 -0.047672484 0.05209952 -0.0024141234 0.015745688 -0.07525812 -0.025096856 0.06546049 0.04991608 0.0246438 0.10546444 0.041857697 0.04854764 0.042393703 0.08946861 0.016875667 -0.0677036 0.012081449 0.045686383 -0.073804215 0.042399738 0.046908405 0.08695678 -0.058516584 0.051725224 0.02466185 0.004718577 -0.05552655 0.077091396 0.02872833 -0.08712041 -0.035749733 0.0102425795 -0.060895182 0.017714664 -0.013065942 -0.0099159945 0.13035455 0.014823638 -0.09637785 0.04741203 0.107591 -0.008746683 0.017593639 0.12055923 -0.056924842 0.08418684 0.0948091 -0.04403021 -0.052775897 -0.040692613 0.0015936053 0.09027684 0.008725752 -0.16569524 -0.19464599 0.014195633 -0.054615553 -0.12794457 -0.010633957 0.03768553 0.050766587 0.021839198 -0.03269783 0.017418882 -0.08872651 0.010954148 -0.021264378 0.0038225043 -0.011013431 0.030974079 0.04663894 -0.058778863 0.0057385513 -0.012689408 0.10433377 0.08736559 0.08160734 -0.014569029 -0.058833282 0.0176774 0.04769965 0.0044110604 -0.09183449 -0.058592398 0.027162604
27 0.05665573 -0.020762183 0.10638186 -0.01824769 0.0129995225 -0.07546296 0.021097334 0.036545016 0.013091178 0.009390241 0.09738539 -0.04953322 -0.020287452 -0.028542455 0.028392555 -0.045677338 0.016167158 0.015524222 -0.06665389 0.035309203 0.071931794 0.050633486 0.032431684 0.026345452 -0.11170732 0.08897625 -0.055029254 0.038489684 0.031733144 -0.029432403 -0.14827712 0.026738146 -0.02953231 0.007699742 -0.033108562 0.011365055 0.102730125 0.03194765 0.10838982 -0.016468495 -0.033626016 0.08078377 -0.052946806 -0.02712879 0.054912403 -0.0063134935 0.015501073 -0.053127978 -0.026078869 0.04509386 0.028589547 0.021246066 0.10051497 0.042294234 0.04895454 0.032353736 0.08398247 0.014737321 -0.05076095 0.0042739427 0.035049435 -0.06640641 0.029166909 0.049457226 0.06629273 -0.049725205 0.03415162 0.025349224 -0.0092472425 -0.05050666 0.071225956 0.01855861 -0.069279715 -0.029654816 0.006493209 -0.041361425 0.012875497 -0.013628838 -0.0029275722 0.102974415 0.006015241 -0.08682038 0.046516106 0.09511402 -0.018367372 0.013297983 0.10070274 -0.043210756 0.083887294 0.08385294 -0.043115675 -0.03928963 -0.038716745 0.00481108 0.06731494 0.005057516 -0.13877669 -0.14773202 0.018828921 -0.050252184 -0.10858166 -0.016584234 0.02498971 0.036081158 0.015284243 -0.019299202 0.013354344 -0.07698712 0.011904249 -0.017478462 0.009828286 0.0019555737 0.020101763 0.037059806 -0.046478253 0.0049642674 -0.014262303 0.08006351 0.07407145 0.071181126 -0.010839116 -0.05871125 0.022821033 0.045508586 -0.010742225 -0.08500674 -0.036176577 0.019451046
13 0.04999513 -0.01784729 0.09887197 -0.009985718 0.006965789 -0.082378015 0.018173004 0.0312826 0.0077539226 0.023714367 0.098935485 -0.057989497 -0.0143007655 -0.02601983 0.028253665 -0.049098548 0.007958871 0.018628942 -0.059643395 0.04402801 0.071750864 0.052678112 0.03676239 0.028943563 -0.116389625 0.088917166 -0.05800968 0.05487744 0.024869865 -0.035850216 -0.15450136 0.025347557 -0.030747505 0.008357989 -0.026200434 0.0156476 0.10259667 0.032194704 0.10361898 -0.009606748 -0.035039347 0.090591475 -0.05127314 -0.029344603 0.053243533 0.003027263 0.019273486 -0.0518907 -0.019585278 0.056049816 0.040847365 0.030427475 0.10062459 0.031263333 0.04353669 0.04165311 0.08246324 0.014347186 -0.052232288 0.016230917 0.033737447 -0.0681527 0.043797493 0.049389586 0.07488635 -0.04294152 0.040591244 0.013532089 0.00089519983 -0.055599567 0.06561535 0.01221903 -0.07096565 -0.031518877 0.012259378 -0.054480158 0.026526289 -0.017484887 -0.004413768 0.11365249 0.011108807 -0.08020676 0.036935635 0.09041231 -0.018035077 0.012502245 0.11236603 -0.04293661 0.08435323 0.078023836 -0.03464857 -0.0473997 -0.026178442 0.00809045 0.06877938 0.012377723 -0.15404293 -0.16921501 0.016736988 -0.044794396 -0.1243553 -0.01790288 0.03967697 0.04443376 0.015915558 -0.01857507 0.010987806 -0.07999839 0.006820365 -0.013694421 0.004981469 -0.0047864425 0.025126347 0.03519495 -0.051878426 0.00872407 -0.0019047256 0.08151722 0.07599361 0.07469423 -0.019244215 -0.05560824 0.01458594 0.0479811 -0.001997238 -0.09355682 -0.04496509 0.016075833
19 0.06270562 -0.02316728 0.12888311 -0.018142978 0.0045448355 -0.08185683 0.021055007 0.03133229 0.008211961 0.015487865 0.11240972 -0.056355402 -0.032930072 -0.040823635 0.026177734 -0.057486523 0.014207 0.023457546 -0.07313431 0.041490838 0.0858728 0.0608897 0.052362442 0.036451645 -0.12931915 0.0946259 -0.07535667 0.0475674 0.032430995 -0.045801833 -0.16186911 0.038659446 -0.03628396 -0.0034768588 -0.035723556 0.006088833 0.13367572 0.03621055 0.12790212 -0.018214967 -0.029298572 0.09728318 -0.056666814 -0.042278588 0.061503284 -0.002124777 0.026209075 -0.06192808 -0.022783158 0.06277959 0.044262536 0.025325548 0.116722666 0.044270705 0.050227176 0.052805614 0.09291283 0.0202612 -0.0608665 0.019061722 0.044438526 -0.0814011 0.038797375 0.06290993 0.07860623 -0.056269098 0.048584927 0.022772694 -0.0019450666 -0.059827626 0.083861716 0.023182906 -0.07188204 -0.02665994 0.005173617 -0.051298223 0.020349521 -0.018943882 0.0074326936 0.13264756 0.022130968 -0.09629549 0.04125188 0.10866096 -0.023235908 0.03088998 0.12246309 -0.043187656 0.094530515 0.096367605 -0.04682798 -0.04232245 -0.028861301 -0.0020744852 0.08150263 0.0061772587 -0.16409168 -0.17591575 0.014662968 -0.05035926 -0.13748418 -0.00800617 0.041533627 0.052570123 0.016988037 -0.025775503 0.024648504 -0.08475631 0.010113506 -0.029393366 0.010459596 -0.01110599 0.018505704 0.047971588 -0.05446098 -0.0052743126 -0.0021659124 0.10326245 0.08630517 0.08826192 -0.021178894 -0.06873574 0.023621285 0.03907194 -0.009675685 -0.09446226 -0.05226659 0.013290494
21 0.058012165 -0.027407046 0.10753362 -0.019433957 0.008078198 -0.0812906 0.013401808 0.03668492 0.017794646 0.0098717045 0.11447584 -0.048238028 -0.030396124 -0.03462035 0.025145933 -0.047801934 0.006176379 0.018242212 -0.06400002 0.02943359 0.06980557 0.053224534 0.04497479 0.02641169 -0.11000669 0.087589815 -0.061150614 0.05240807 0.032155074 -0.029619472 -0.1548873 0.027734373 -0.025453346 -0.0037240628 -0.022894314 0.009235965 0.11032692 0.030216748 0.117365114 -0.0137016475 -0.03321286 0.079724126 -0.05677756 -0.040424302 0.062941656 -0.007400326 0.022936659 -0.06027479 -0.021381093 0.06271454 0.03462828 0.022997793 0.101827264 0.04524909 0.057055652 0.039682895 0.08844254 0.016383475 -0.058262013 0.01810116 0.034206476 -0.06998556 0.041095566 0.055124596 0.066901706 -0.044992235 0.04987778 0.02913331 -0.011101643 -0.045036145 0.07593711 0.01869463 -0.06383376 -0.031384133 0.0073107863 -0.0545434 0.016113523 -0.010158714 -0.0012028296 0.11046733 0.018546786 -0.09026935 0.03940929 0.10202181 -0.0092507005 0.025258439 0.11012409 -0.042506214 0.08195512 0.093386285 -0.04669762 -0.038849954 -0.030068599 0.0014784138 0.07589012 0.010786986 -0.14614658 -0.16388683 0.023575885 -0.053483866 -0.11936414 -0.012589515 0.028560948 0.046851747 0.016091783 -0.025500182 0.019932242 -0.07859007 -0.00016477515 -0.031831443 0.008550489 0.00065850775 0.012943391 0.048872523 -0.04512867 0.0010021974 -0.009497935 0.08313421 0.0759373 0.08481794 -0.018073555 -0.058463525 0.021933679 0.046037965 0.001756588 -0.09044871 -0.039621487 0.014062025
17 0.05030569 -0.011486438 0.112763815 -0.02450852 0.008032005 -0.08742246 0.015514764 0.03727151 0.0062755933 0.023453938 0.10813974 -0.05773929 -0.028974833 -0.035558976 0.01979391 -0.049006157 0.017356208 0.026492795 -0.06749365 0.03826749 0.06779111 0.053040612 0.040272854 0.03793898 -0.11634336 0.07957909 -0.058182813 0.05024271 0.027420804 -0.038633678 -0.15417987 0.031952437 -0.041086867 0.00039548546 -0.03193031 0.018914003 0.11456054 0.035841297 0.112519115 -0.015393814 -0.029656433 0.084963635 -0.044251714 -0.037030023 0.04364294 0.001417562 0.026455851 -0.06437148 -0.025591103 0.050128654 0.045505106 0.024263447 0.10712382 0.032146845 0.05704545 0.03246491 0.091486 0.012892308 -0.05245761 0.005404753 0.045981184 -0.06382298 0.03382241 0.04078436 0.07766222 -0.052566126 0.035269424 0.023639461 -0.0068712514 -0.055842087 0.07802137 0.02040993 -0.07287015 -0.029263081 0.003387016 -0.054840222 0.014042542 -0.014932601 -0.007687515 0.12254321 0.018191736 -0.08681907 0.042387843 0.08541036 -0.0066324743 0.028545389 0.11057179 -0.04887246 0.07897672 0.090508655 -0.04061188 -0.03814214 -0.024214027 0.0065975403 0.07029075 0.011480135 -0.15394129 -0.17144704 0.021913426 -0.055241182 -0.11967518 -0.011237814 0.025092278 0.04243323 0.02260257 -0.027426666 0.008259259 -0.077529185 0.0038296985 -0.027824802 0.009833364 -0.0060562235 0.028111756 0.042180244 -0.038219754 -0.00697976 -0.004306056 0.09306034 0.07423584 0.073866524 -0.013063869 -0.056903828 0.012423954 0.037320834 -0.0015472518 -0.088530056 -0.036673997 0.018306997
26 0.054250207 -0.016956232 0.11097153 -0.024577934 0.009160825 -0.07698785 0.017751064 0.029691638 0.005135895 0.02341188 0.09596629 -0.04959386 -0.026182221 -0.027625173 0.029080639 -0.050479926 0.013646302 0.022995958 -0.05515412 0.042231835 0.068955496 0.049871013 0.030333124 0.03685111 -0.107506104 0.08329449 -0.059079874 0.051749244 0.036420707 -0.030822787 -0.14199752 0.03685696 -0.02885361 0.0073879464 -0.025331838 0.009869247 0.11170553 0.030078186 0.10308239 -0.004867151 -0.03854905 0.07774307 -0.050195877 -0.02788225 0.05729183 -0.0047623925 0.022598675 -0.056497257 -0.027100125 0.04813764 0.03437493 0.022222752 0.0930951 0.03199199 0.05177639 0.04692664 0.07844147 0.014683328 -0.05139608 0.009905437 0.03096177 -0.06517433 0.03967703 0.0526577 0.072506875 -0.041730717 0.044373747 0.013723062 -0.003090046 -0.051378768 0.07210658 0.025251599 -0.07080186 -0.024392167 0.011208942 -0.04541522 0.01868034 -0.015451336 0.008044401 0.10139522 0.007633825 -0.08375517 0.034732517 0.08549562 -0.021442162 0.0216133 0.100025 -0.043011606 0.08139001 0.084920995 -0.036486845 -0.03818768 -0.022839691 0.0036181593 0.07446401 0.01485002 -0.15163687 -0.16270593 0.02344892 -0.04308088 -0.115207784 -0.005734347 0.02702043 0.03664646 0.009902926 -0.013852314 0.012463371 -0.08489497 -2.355381e-05 -0.016646357 0.00802233 -0.01043795 0.017897638 0.037557486 -0.045361843 -0.0012864709 -0.0036083332 0.082545996 0.06558778 0.07566452 -0.0087749185 -0.06074446 0.01203486 0.04529941 -0.010518891 -0.08225687 -0.050319586 0.024768392
12 0.054403044 -0.02658962 0.121227905 -0.02169447 0.01664386 -0.08280726 0.017185757 0.037227467 0.018295446 0.02276708 0.1104496 -0.062283024 -0.021984981 -0.02928825 0.020441787 -0.06567922 0.014081168 0.036494765 -0.07824246 0.041547205 0.07945169 0.06658376 0.054904774 0.033410754 -0.122352116 0.1016789 -0.06495814 0.047825366 0.037189733 -0.03897171 -0.17342433 0.04118476 -0.039138205 0.013866302 -0.031590667 0.015538007 0.12475049 0.030726448 0.11748207 -0.008879508 -0.04270036 0.09794581 -0.053476352 -0.04641911 0.05408031 -0.0026743081 0.015863402 -0.06703184 -0.017391315 0.052286245 0.04000682 0.036627997 0.11858946 0.050534602 0.047362015 0.05071347 0.08903825 0.02024704 -0.05604469 0.009292994 0.048815127 -0.08417814 0.048735294 0.05843593 0.08717339 -0.04850981 0.046481986 0.02609199 -0.006766841 -0.06092896 0.079917796 0.015366683 -0.08061361 -0.028325414 0.013775446 -0.06454855 0.019462941 -0.015406055 -0.0064126705 0.12821741 0.019645084 -0.09725667 0.043507673 0.11064878 -0.015562555 0.020957995 0.12965904 -0.04852283 0.089901514 0.1045017 -0.03577015 -0.043388158 -0.033392143 0.0013196996 0.09108079 0.011215455 -0.17633195 -0.19270486 0.017014613 -0.060348786 -0.13188124 -0.019594956 0.035559524 0.052258786 0.021248342 -0.022222782 0.0072296024 -0.09004646 0.0111191785 -0.021783194 0.0152963875 -0.0070005786 0.028857933 0.053058974 -0.052891083 0.0015129718 -0.0058563873 0.09193706 0.086707644 0.08127202 -0.020250095 -0.06428547 0.026941845 0.050993092 -0.003853833 -0.10067758 -0.053185545 0.020847447
31 0.037742347 -0.019646741 0.08922658 -0.0108657675 0.0074629043 -0.0582275 0.013559347 0.021964718 0.0038160235 0.017567035 0.08916201 -0.047686294 -0.0146210715 -0.018790215 0.0119331 -0.04394251 -0.00044291074 0.021535024 -0.055523023 0.030334005 0.06651198 0.037193455 0.025662048 0.025595667 -0.09582666 0.062941946 -0.056739196 0.03729259 0.023588369 -0.027239038 -0.12336183 0.033453047 -0.018850842 -0.0032903524 -0.014270293 0.0030588775 0.0905576 0.029347507 0.0897737 -0.013108933 -0.026605697 0.06894248 -0.048687078 -0.032139666 0.037342045 0.0031587014 0.0150645 -0.05344571 -0.012910931 0.042632826 0.03217508 0.026701577 0.07611577 0.037604984 0.03327992 0.03069595 0.06247918 0.011078555 -0.04908789 0.016302288 0.035300717 -0.06261543 0.035963643 0.045543645 0.05085592 -0.033460516 0.02922357 0.024813265 0.0013814506 -0.03927576 0.049639054 0.014841216 -0.056794968 -0.020619992 0.012953968 -0.041518774 0.00819242 -0.0153076155 -0.00046175587 0.0912821 0.011038818 -0.069043085 0.04090804 0.075842395 -0.0075184987 0.020958638 0.08125333 -0.036284957 0.058294483 0.06445343 -0.034895923 -0.025486365 -0.026679661 0.009321047 0.058315895 0.0016036099 -0.11892938 -0.12972493 0.012799763 -0.040816616 -0.10142951 -0.005040373 0.019846383 0.029091645 0.0074273436 -0.010533257 0.015726853 -0.06115289 0.012116535 -0.024826309 0.011358107 -0.002513684 0.020695124 0.030159496 -0.028558614 -0.004299678 -0.00074881734 0.074441545 0.05759619 0.0664695 -0.0056541506 -0.044200454 0.02186348 0.035927325 -0.0040630484 -0.06427455 -0.032811306 0.012626751
23 0.049853068 -0.018815737 0.10734445 -0.020928657 0.0030858128 -0.075452805 0.018879239 0.024279146 0.016532676 0.012725181 0.102213725 -0.047560368 -0.016395666 -0.0337657 0.017947188 -0.04665554 0.0064508473 0.02734112 -0.06602149 0.03549042 0.06804878 0.049517646 0.039758638 0.02665496 -0.10740902 0.073842324 -0.055616748 0.048002787 0.025132 -0.025457868 -0.13929635 0.027725643 -0.031268653 0.0040934184 -0.030538326 0.01347398 0.11094714 0.037184197 0.10865758 -0.009375912 -0.03342331 0.0751789 -0.041251138 -0.03878008 0.04973401 -0.002696529 0.021976445 -0.060314257 -0.016569763 0.05223173 0.03164525 0.018725852 0.086466774 0.039087635 0.03867702 0.043554984 0.075912245 0.004310505 -0.05428214 0.01716788 0.03492518 -0.06028936 0.027643163 0.03993219 0.06153989 -0.04276325 0.034763075 0.012842677 -0.009380346 -0.046173204 0.07179997 0.0120856725 -0.070226364 -0.024536038 0.0102346 -0.05221967 0.02359746 -0.01591628 0.004374758 0.113339566 0.016606528 -0.0739862 0.046714522 0.09044453 -0.019719014 0.024471099 0.09498201 -0.044860117 0.08051491 0.07451059 -0.042416994 -0.039443612 -0.028023321 0.0071336613 0.071509324 0.011366508 -0.14349627 -0.14954254 0.009746533 -0.0459198 -0.1188049 -0.008591351 0.033361547 0.045391902 0.013676387 -0.01806744 0.021409089 -0.08220986 0.0018629469 -0.022697296 0.0064081317 0.0016636177 0.024952773 0.045623176 -0.03404931 -0.006920024 -0.00735413 0.07469348 0.064098656 0.06601369 -0.009347609 -0.05247897 0.012994083 0.045455605 -0.0024571312 -0.08065697 -0.0446868 0.014317255
22 0.030482452 -0.006233136 0.072447345 -0.01609651 0.009307827 -0.050914016 0.0076973955 0.02560612 0.0053034932 0.019099612 0.06397199 -0.04087695 -0.016890064 -0.02375065 0.012463029 -0.034627352 0.00900165 0.021046292 -0.04340209 0.027039275 0.046493884 0.036458306 0.025907513 0.0175264 -0.07661533 0.052357577 -0.040075555 0.031752624 0.011676523 -0.016572617 -0.100419864 0.018511364 -0.02557258 -0.00032464694 -0.021029927 0.00096347876 0.07276234 0.015388285 0.068923965 -0.013576821 -0.013878658 0.054093014 -0.038378082 -0.019361647 0.026109466 -0.00022775396 0.014687604 -0.044066656 -0.021048496 0.027900392 0.03136366 0.024802538 0.06700374 0.026487205 0.034684997 0.02405002 0.062048346 0.014058773 -0.031920146 0.014684864 0.017979395 -0.044674475 0.03260794 0.030641163 0.042083994 -0.03231397 0.025984593 0.011459662 -0.0022673034 -0.026344301 0.044193406 0.01619253 -0.04924987 -0.010408167 -0.0012925339 -0.04138407 0.00917638 -0.012514916 -0.0047782185 0.0747854 0.011087479 -0.052271497 0.030097924 0.05996112 -0.0071837264 0.01402294 0.07743241 -0.0219881 0.05020703 0.056734983 -0.029362714 -0.029874228 -0.026975233 0.0017705542 0.045399528 0.0001245611 -0.0981807 -0.10548222 0.002724129 -0.030043377 -0.07415975 -0.0040043886 0.019245107 0.036528293 0.017897787 -0.014064502 0.0099481195 -0.060688887 -9.1932816e-05 -0.014976545 0.009070323 -0.0047291126 0.006560849 0.031153068 -0.036088772 0.00780558 -0.0006811645 0.051198233 0.049261574 0.05544435 -0.015204736 -0.04144357 0.019531697 0.029483896 0.005436254 -0.064698905 -0.03133295 0.017759478
10 0.040700376 -0.017441798 0.08376656 -0.01818915 0.0003332001 -0.057392042 0.013275818 0.019024748 0.014734194 0.010829206 0.08417055 -0.04358393 -0.016722616 -0.029693998 0.018072248 -0.044485543 0.013972516 0.024519183 -0.053114668 0.024578081 0.062001377 0.045026787 0.02731376 0.020075174 -0.09312985 0.07183057 -0.05664108 0.034277204 0.031150829 -0.031074231 -0.11778263 0.027056798 -0.030009057 -0.0036219417 -0.021842994 0.013690432 0.088062614 0.023656398 0.08585811 -0.0053236173 -0.029258886 0.072494194 -0.042837314 -0.034234814 0.043349106 0.0008156089 0.017407969 -0.054244943 -0.02189294 0.03871001 0.032455962 0.019890925 0.08189725 0.034528654 0.044011917 0.035871483 0.06632366 0.010396159 -0.04748271 0.004919926 0.038087964 -0.0607484 0.022610702 0.04424288 0.06352075 -0.037726074 0.037004866 0.0153783 -0.0062955497 -0.04656915 0.051329218 0.009098635 -0.0618325 -0.015537345 0.014275326 -0.0407751 0.015129982 -0.002287869 0.0020968742 0.087844595 0.013082719 -0.06724139 0.03175871 0.073366046 -0.005597255 0.023477409 0.081784874 -0.038853187 0.06754812 0.07071313 -0.03935898 -0.024140026 -0.030908963 0.0064109284 0.06787239 0.0071892324 -0.12008594 -0.13472761 0.0053875335 -0.038585227 -0.09922117 -0.015719833 0.03196407 0.030733509 0.018683104 -0.020096235 0.007062698 -0.07472212 0.008974411 -0.023755273 0.0133641055 -0.0052385726 0.02375677 0.038727883 -0.027924892 0.0065281633 -0.012504194 0.062801376 0.054283928 0.06273832 -0.006594256 -0.04262502 0.01516763 0.038212873 -0.0057942844 -0.076012045 -0.032138217 0.0068899947
18 0.04931699 -0.021925243 0.109578945 -0.020579908 0.010362744 -0.08045352 0.022668948 0.02504658 0.014739349 0.020602614 0.104403935 -0.05570417 -0.023383439 -0.035048515 0.024473872 -0.052541677 0.012030311 0.023338694 -0.05537363 0.029653687 0.06977822 0.05154561 0.032967385 0.035125148 -0.107334666 0.086279966 -0.057318196 0.04907351 0.031150417 -0.024685793 -0.1507338 0.038039964 -0.024883896 0.0049506105 -0.022682127 0.015227547 0.10983866 0.02972143 0.10729901 -0.011188072 -0.027508352 0.086992934 -0.05348472 -0.03404155 0.04179858 -0.00013795693 0.011171242 -0.053960774 -0.021713994 0.04856701 0.041129444 0.018953707 0.09398466 0.034453746 0.043203715 0.033444956 0.07285828 0.018990234 -0.057034057 0.014118845 0.03337223 -0.06656297 0.039492395 0.03917961 0.06415677 -0.050737176 0.03297128 0.015611413 -0.0040090308 -0.046569955 0.065010615 0.013003772 -0.07033849 -0.026937865 0.0012585557 -0.05364247 0.016070625 -0.01623117 -0.007943703 0.10182947 0.01583479 -0.08430934 0.035469323 0.09305673 -0.0069256383 0.015025961 0.1089884 -0.047914557 0.075944446 0.086800665 -0.03885539 -0.031018548 -0.030746898 0.006339977 0.07635176 -0.00039768068 -0.1485572 -0.16231285 0.013949458 -0.05083031 -0.11332542 -0.016333304 0.031246113 0.041626006 0.021042163 -0.027618853 0.010306508 -0.07327938 0.012702837 -0.02230268 0.009096798 -0.011509416 0.020243583 0.032744437 -0.049783517 0.0026340885 -0.006570184 0.08640201 0.061340626 0.07347149 -0.013062676 -0.05726839 0.01783968 0.045420144 -0.008105814 -0.08247008 -0.040754102 0.019340957
